digraph Tree {
node [shape=box, fontname="helvetica"] ;
edge [fontname="helvetica"] ;
0 [label="5me <= 0.5\nsquared_error = 0.249\nsamples = 13\nvalue = 0.462"] ;
1 [label="guide <= 0.5\nsquared_error = 0.139\nsamples = 6\nvalue = 0.167"] ;
0 -> 1 [labeldistance=2.5, labelangle=45, headlabel="True"] ;
2 [label="squared_error = 0.0\nsamples = 3\nvalue = 0.0"] ;
1 -> 2 ;
3 [label="squared_error = 0.222\nsamples = 3\nvalue = 0.333"] ;
1 -> 3 ;
4 [label="guide <= 0.5\nsquared_error = 0.204\nsamples = 7\nvalue = 0.714"] ;
0 -> 4 [labeldistance=2.5, labelangle=-45, headlabel="False"] ;
5 [label="squared_error = 0.25\nsamples = 4\nvalue = 0.5"] ;
4 -> 5 ;
6 [label="squared_error = 0.0\nsamples = 3\nvalue = 1.0"] ;
4 -> 6 ;
}